[-0.26275824  0.03635492  0.09312051  0.00469211 -0.18295909  0.6987476
 -0.59225824 -0.2201157 ]
[ 5.67079887e-01 -6.58072874e-01 -2.19808889e-01  3.91560203e-03
 -1.01746729e-01  3.72084101e-01 -2.19613843e-01 -2.50952552e-11]
[ 5.46783565e-01 -6.58642106e-01 -2.25356474e-01  4.05745377e-03
 -1.33448262e-01  3.88491350e-01 -2.18362857e-01 -8.41715996e-09]
[ 5.38551895e-01 -6.57509965e-01 -2.28150020e-01  3.62987370e-03
 -1.44101849e-01  3.94856366e-01 -2.21133448e-01 -1.01766577e-09]
[ 5.38551551e-01 -6.57510144e-01 -2.28149949e-01  3.62990258e-03
 -1.44102421e-01  3.94856594e-01 -2.21133049e-01 -7.80006245e-08]
[ 5.38551891e-01 -6.57509966e-01 -2.28150020e-01  3.62987272e-03
 -1.44101853e-01  3.94856369e-01 -2.21133449e-01 -2.17747503e-09]
[ 5.30289341e-01 -6.54362109e-01 -2.33873905e-01  4.18019145e-03
 -1.58314834e-01  4.02291151e-01 -2.21330548e-01 -6.27408596e-06]
[ 5.30289283e-01 -6.54362133e-01 -2.33873882e-01  4.18018301e-03
 -1.58314867e-01  4.02291180e-01 -2.21330565e-01 -6.27971946e-06]
